{"input_weights": [[-0.7885906697831235, -0.9253573483235273, 1.334359990055702, -1.393113492434895, 0.9141158312382021, 0.7518740449371362, -1.3438102080320466, 0.110108830155373, 0.021385731756144916, -0.9134778454531941], [0.2588126836677322, 0.15764150072920138, 0.5663617881680687, -0.33548055078535105, 0.11157429847861461, -0.4721247641055388, 0.37015106333598663, 0.3732198250348786, -0.8804521692935774, -0.8172677314089505], [-1.2071966839031747, 0.4755408369999566, 1.0397397026067021, -0.1831499117721009, 0.7761738607802936, -0.3551973110628959, 0.8023999687212553, 0.44226748429267054, 0.3570589987357353, 0.9259605411590137]], "output_weights": [[-0.7606023018062915, 1.5904921251369428], [0.9068092512156286, -0.13276672629098146], [0.1589640139461811, -1.7704924122734804], [1.1185594859895087, 0.8858568293637438], [-0.17941830034014736, -1.3228190673988613], [-1.184307848512307, -0.46134757121213005], [1.1279625989402102, 0.8074668863254282], [0.2988922303057387, 0.31401439372655], [0.7238555900863068, -0.8067133528944392], [1.472756851958048, -0.30104530160761667]]}