{"input_weights": [[-0.6233619575232374, -0.865858692061886, -0.4558657150019676, 0.09952004250485391, 0.5881487202878277, 0.9179209803975781, 0.17001224874479437, 0.24070869311441823, -0.06800357363602272], [-0.3367838002342496, -0.04237440395041392, -0.8725745045941131, 0.6816795417652695, -0.3082784573775472, -0.4236367756555566, -0.8915337749446097, -0.6238823388176311, -0.3916789831211043], [0.7210457005794029, -0.10130727039068832, 0.7238691143975433, 0.3951579805875569, 0.6204386262778228, 0.35172231265044407, 0.8293202100975305, -0.264065072124005, 0.7414699447282029]], "output_weights": [[0.9005477986219306, 0.06776846574130405], [-0.8083481456229366, -0.32336618345279444], [-0.9383227749201518, -0.4023036033107788], [0.19596025473504589, -1.0266296236850403], [0.30532021493719524, 0.27758882027244286], [-0.8975595026967406, -0.10426927373858773], [-0.21363323482512592, 0.8452108049796379], [-0.7239347491571182, 0.8699642071455932], [-0.4292160449657136, -1.0316520543969554]]}