{"input_weights": [[0.36475065384238037, -0.10594189321468872, -0.3506303282141847, 0.135908163668627, -0.2401772977414045, 0.18160022148248678, -0.4165521374642931, 0.11431229041586954, 0.19564655325039415, 0.5518002344938484], [-0.3099599249982765, 0.7390556978595613, -0.11118124808965324, 0.2504622124402025, -0.9663914396748154, 0.20411044265862088, -0.9663680329014346, -0.07913017184635418, -0.27457903140483797, -0.4022085453839195], [-0.8917727772475421, 0.6245253029421776, 0.15116790906343103, -0.4728110164056023, -0.28260213129316325, -0.8328192325396391, -0.7381307286799637, -0.6630365130265494, -0.9942126284548123, -0.033175748427453966]], "output_weights": [[-0.6301544126911169, -0.6857838691080389], [0.3862899493800087, -0.2941311740806809], [0.47667591943482535, -0.8840025066959203], [0.9633547499140678, -0.09506003760897386], [0.6847006403564895, 0.8672040181186851], [0.2639797268586812, 0.3663150518419722], [-0.055971745659148864, 0.6254699600085438], [-0.37620317530443703, 0.9506628018946228], [0.6722162182836484, 0.14784302095130752], [0.37065235099716354, 0.00843612512221914]]}