{"input_weights": [[0.5633416065075991, -0.004291582987577147, 0.9122196145907677, -0.6286192363309331, -0.150578574911709, -0.467830267168053, -0.5445599699537393, -0.04646146714258448, 0.37509283452426967], [-0.13355736239299176, -0.6180298080005977, 0.3892691795126517, -0.6125200345523629, -0.41939483047317494, -0.4668924025061245, 0.7375419139219503, -0.3421136667916307, 0.9203598398816324], [0.9806479813771738, -0.09077209809263809, 0.87123104464031, -0.6531081132378431, 0.8949401432619937, 0.39789181618393155, -0.6597617396333866, -0.6361418590091392, -0.8453150072352256]], "output_weights": [[-0.9147277265635683, -0.5875896453503944], [-0.7402640780459456, 0.8877727696696173], [-0.6594070297928538, -0.9294181357019436], [-0.8368411489335114, -0.9678695419139904], [0.07318729929612941, -0.35348366433353756], [-0.5567542844142468, -0.20284105121085252], [-0.07895483135946056, 0.6256114441814368], [-0.20016712768250722, 0.247215524558105], [-0.19487490583115188, 0.6606434146729228]]}