{"input_weights": [[-0.568496184287721, -0.6247467671939633, 0.3749984039028442, -0.4788401357676142, -0.9436861957262643, 0.9005192481914497, -0.7612620812266344, 0.011414601949548464, 0.5604148891234135, -0.10255896689030686], [0.9056668217320369, -0.7576141900751971, -0.49989814499947727, -0.9327156443995483, 0.8084741377553049, 0.346521118661127, 0.41999438339444906, 0.48459992411908437, -0.3629606979300486, -0.02344795811991629], [0.3544731848132512, 0.5229450017210313, 0.07761543806087157, -0.8982969259570266, -0.09843793368280473, 0.22785327111630926, -0.22033832973499945, 0.8369442105193063, 0.7277635947007073, 0.7636294787321796]], "output_weights": [[-0.4273226389896103, -0.47783148196675995], [0.8997126832332663, 0.6283625490654079], [-0.18863259062636195, 0.5569372356769524], [0.2625497899286233, -0.14892887614408234], [0.3840636073810162, 0.022521455304129745], [-0.7671400450700558, -0.9799439727368737], [0.8766927450040447, -0.5413552938759805], [-0.01144017848494272, -0.8471514434041842], [0.8645594260715113, 0.2789986591735383], [0.9186347593367208, 0.4513581159533382]]}